svm_type c_svc
kernel_type linear
nr_class 2
total_sv 6
rho 16.7708
label 1 2
probA -0.0308314
probB -0.764602
nr_sv 5 1
SV
0.01371209003714841 5:-36 
0.2173841313654022 4:-80 
0.003245210525788115 3:-74 
0.003626688334533819 1:-70 
0.003843180944667894 2:-68 
-0.2418113012075404 4:-71 
